0.763301056355403
2.53789986442619
0.115138171383331
-0.0154200752093025
-0.132213854706967
0.143067858161005
0.0359845140609395
0.19051750370581
0.140361094639581
-0.164432029404051
-0.198879737578513
0.0149938797336706
0.124204148388653
0.0842019894949075
-0.108270177302767
0.640988377387594
2.34989009822664
-0.079652978642949
-0.172752101643019
-0.196068401096249
0.185815557766926
-0.189771181745284
-0.19786817860636
-0.163588447908785
0.141632914277433
0.157433589603369
-0.140306169407946
-0.163506407568621
0.143403745638983
0.0218576711689803
0.724931356786647
2.52493815445547
-0.176252064185202
-0.0699639652975094
0.0647125782935604
0.0933198543191489
-0.154279798147324
0.16480419538832
-0.195502412631869
-0.055148841787232
-0.0574229728308041
0.118041578027212
-0.132532688623228
0.043162093224912
0.142438122022587
1.01280617285628
2.48914194895882
0.0834727139484383
-0.117951085436886
-0.0930161991566158
0.142495900167532
-0.0657419592102519
0.199950260742731
0.0519198888139075
-0.172363735797957
0.100923801589475
-0.198704905034916
-0.119615489103289
-0.0130200960681445
-0.199667738792315
1.05471616187382
2.32807797177982
-0.19678791627993
-0.0515701417746775
0.186052746466668
-0.16085384887982
-0.174354806826187
-0.185296110887331
-0.0209745500358019
0.0255829420747921
-0.0409951094770079
0.145976685063312
0.196125766475593
-0.198519670724916
0.0302346776119241
0.892346800372193
2.37241955657203
0.186920292014175
-0.196781523870686
-0.183571708254066
-0.0699577318807101
0.0550532826670056
0.116939249576258
0.191788070817919
0.00533659810369692
0.120452003394
0.0266050420833696
-0.194748464687931
-0.0900427052357838
0.014145303052044
1.02191120431965
2.25184043222152
-0.171831254912849
-0.0308413453619283
0.19245746560508
0.0164637823697809
-0.179927936071092
-0.196839778795397
-0.092964486991667
0.141702461841015
-0.126233285183443
0.0921011993059867
0.102072820208134
0.0963218163851641
-0.0547495309454757
-0.199836963120317
0.172350029949034
0.147556245797273
0.19485950793259
-0.141277810777994
-0.0572916938407558
0.0919161535566077
-0.178515990769976
0.0334985063238679
0.183023619788195
-0.192059850291335
0.0807668563885122
-0.0215760726233712
0.183625534191403
0.104333086649046
-0.182101391651398
-0.187231460087129
-0.0419408367680728
-0.136819724894341
0.149358300318484
0.00669832459730458
-0.0427607620779874
0.199820883379263
0.0306316233664641
-0.0138574938617861
-0.19960691307205
0.129463290052117
0.0408144339162643
-0.113549316990769
-0.197381893606537
0.273199269563755
2.06922327702373
-0.0243426439854797
-0.121330755586686
0.19998124660334
0.10064650919689
0.164204327202939
-0.0882303571622575
0.0624155456372934
0.043595709764314
-0.094824576753565
-0.195112883617289
0.0127684913574356
0.0744452572354157
0.159362650303533
0.678920527986288
1.20927509767987
-0.0454906704215611
-0.171689589921809
0.187101752457158
-0.078019665575707
-0.0474203010810114
0.0432084291197054
-0.0809116288439003
-0.0611612753418065
-0.145773198877078
0.108668304029176
0.188419624022018
0.197512816848615
-0.199325875430494
0.549803480232438
2.0950649861004
0.19815312318789
0.120699570597628
0.0628924446045409
0.0912182414169479
0.102435813214129
0.198600780688448
-0.102045010094822
0.181411096652229
0.0360636897580171
0.137007442320101
0.0211815606802794
-0.189108937932146
0.194567677727584
0.917248273378353
3.61858468978339
0.0595808358505443
-0.0292046407820205
-0.0831511046290011
-0.0603577576177184
-0.0913959638163074
0.189010279173183
-0.0776831394045723
-0.186717622265651
0.199797101038662
0.190523085297752
-0.188072788417117
-0.0668971068368969
0.0321384901561036
0.178399754893995
-0.186032378350198
0.163383111589652
-0.079047529553931
0.0385153502420862
-0.0375893814183935
-0.0699914618116769
0.199507553271535
0.129041768437448
-0.196938489083156
-0.0212831511299161
-0.0496585883407463
-0.116732837989574
0.171790389092523
-0.171293406296313
0.538749430684628
1.85502788390616
0.185738315995506
-0.196664387454429
-0.198494834362021
-0.189423370025686
0.194487437248298
0.176606578631912
0.188378668290331
-0.185080767127245
-0.00821606104235541
-0.167377494502801
-0.0739371058975488
0.199275222690918
0.0546248705335242
0.397706816807355
-0.162463735855866
0.173368072480719
-0.107815908737646
-0.0782947812707044
-0.0889101123067435
-0.160927192040011
0.0560177919822995
-0.144366106412584
-0.344299447986163
0.0355922689019419
-0.255920515760604
-0.137421496569457
0.0488933922745983
0.299686268225732
-0.0937964591733208
0.0344118068305224
-0.346592403381805
0.165805467270539
-0.00125796157647578
0.249861026821293
-0.218119260813615
-0.0644545354585154
0.016402534125973
0.232151539857465
-0.340038291374276
0.235382832478031
-0.366534993603297
0.211098016757722
0.00615927931875129
